{"username":"PRANJAL VYAS","email":"manutd@manutd.com","company":"Glazer Inc.","NeuralNet":[{"fliename":"D:\\Instincts\\AI-ML\\Neural_Server\\Datasets\\Churn_Modelling.csv","layers":"2","neurons":[6,6,1,1],"ptype":"Classification","test_split":0.1,"validation_split":0.1,"learning_rate":"0.00003","Batch_size":10,"Optimizer":"RMSProp","dropouts":[0.33,0.33,0.1,0.1],"framework":"Keras","date":1613579328665,"layers_name":["dense","dense_1","dropout","dense_2"],"weights":[[[0.05561382696032524,0.09928040951490402,0.05783788859844208,-0.0729890689253807,0.06922365725040436,-0.041222359985113144,-0.0001640304399188608,0.01130778156220913,0.09168337285518646,0.08236580342054367],[0.07879633456468582,0.07336490601301193,0.059683360159397125,-0.17118953168392181,0.04672924056649208,0.015089843422174454,0.05970175564289093,-0.00044921220978721976,-0.043039415031671524,0.07471311092376709],[0.10944508761167526,-0.06675110757350922,0.15881943702697754,-0.08480123430490494,0.034515365958213806,-0.1272996962070465,0.0509045235812664,-0.06365354359149933,0.09325707703828812,0.06706760078668594],[-0.03603017330169678,0.09515233337879181,0.08404801040887833,-0.19939222931861877,-0.04053753986954689,0.06722739338874817,-0.007684147451072931,-0.06678232550621033,0.08760406076908112,-0.0072431112639606],[0.10118450224399567,-0.026621028780937195,0.12319593876600266,-0.051128290593624115,0.10009672492742538,-0.13293227553367615,0.08975280821323395,0.03840082511305809,0.16443879902362823,-0.07477235794067383],[-0.06165999174118042,0.0927269458770752,-0.024301089346408844,-0.017543720081448555,0.06003263592720032,0.06733664125204086,-0.0654325857758522,0.10571881383657455,0.056330181658267975,-0.05797700956463814]],[[0.04355257749557495,-0.016208922490477562,0.011214141733944416,-0.02313181571662426,-0.03545041382312775,-0.03606649860739708],[0.17100654542446136,0.1760185807943344,0.22033573687076569,0.21902717649936676,0.21507203578948975,0.13124801218509674],[0.07326344400644302,0.005426677409559488,0.004602860659360886,0.06425756216049194,0.012013598345220089,0.059773314744234085],[0.12156518548727036,0.14432896673679352,0.17211715877056122,0.16583062708377838,0.20014746487140656,0.06777843087911606],[-0.01248462125658989,0.028461633250117302,-0.03705281391739845,-0.001224900595843792,0.027661938220262527,-0.0009768264135345817],[0.160726860165596,0.153090238571167,0.14916887879371643,0.21500331163406372,0.19659112393856049,0.15570633113384247]],[[0.02669149823486805,-0.23337379097938538,-0.05003614351153374,-0.23373231291770935,0.040838807821273804,-0.18838375806808472]]],"biases":[[0.1462259441614151,0.17416971921920776,0.20091742277145386,0.20116835832595825,0.19918817281723022,0.1230936124920845],[-0.0058066206984221935,0.19695653021335602,0.040542103350162506,0.1957046091556549,-0.016282569617033005,0.17856991291046143],[-0.21207289397716522]],"train_accuracy":0.7916049361228943,"test_accuracy":0.8211110830307007,"train_loss":0.5804862380027771,"val_loss":0.5556352138519287,"epochs":10},{"fliename":"D:\\Instincts\\AI-ML\\Neural_Server\\Datasets\\MTS_Search\\Dataset\\Flight002.csv","layers":3,"neurons":[3,5,2,1,1,1],"ptype":"Time Series","test_split":0.1,"validation_split":0.1,"learning_rate":0.0003,"Batch_size":32,"Optimizer":"Adam","dropouts":[0.1,0.1,0.1,0.1],"framework":"Keras","date":1613584389996,"layers_name":["lstm","dropout","lstm_1","dropout_1","lstm_2","dropout_2","dense"],"weights":[[[0.2363242208957672,0.044177163392305374,0.0903678759932518,-0.04425299912691116,-0.23571576178073883,-0.01200922206044197,-0.31598198413848877,0.2982026934623718,0.18623100221157074,-0.1479712873697281,0.2944208085536957,-0.02022717148065567,0.280380517244339,-0.294609397649765,-0.12369108200073242,-0.08558341860771179,0.010711774230003357,-0.27984845638275146,0.40389153361320496,-0.2663508355617523,0.2910495698451996,0.3798912465572357,0.14566227793693542,-0.26540884375572205,-0.09409739822149277,0.04789433255791664,-0.07991845160722733,-0.17458690702915192,0.16368216276168823,-0.21441316604614258],[-0.030188653618097305,-0.21280929446220398,-0.03738855570554733,-0.14421746134757996,-0.02668856456875801,0.3736664354801178,0.06441469490528107,-0.02435223199427128,-0.21318747103214264,-0.16251128911972046,-0.06051429733633995,0.1804826855659485,-0.21030931174755096,0.14558494091033936,0.14147931337356567,-0.08605081588029861,0.3617458641529083,0.21538971364498138,0.04569515585899353,0.16909945011138916,-0.05168183520436287,0.31492412090301514,0.005475263111293316,0.019911881536245346,-0.0027888016775250435,-0.27112269401550293,-0.09839708358049393,-0.21486899256706238,0.3894621729850769,0.3661037087440491],[0.016395851969718933,0.2928074598312378,0.272030234336853,0.2726009488105774,0.22281987965106964,-0.09935281425714493,0.14936114847660065,-0.2169169783592224,0.21311338245868683,-0.16708719730377197,-0.04040183499455452,-0.2302285134792328,0.37211132049560547,-0.2168106585741043,-0.2293369323015213,0.00816059298813343,-0.21060782670974731,-0.10316821187734604,0.2312730997800827,-0.25612297654151917,0.06729986518621445,-0.1170014813542366,0.16818799078464508,0.41775503754615784,0.18619680404663086,0.2121916115283966,0.035570643842220306,-0.2649734914302826,0.27218469977378845,-0.35675108432769775],[0.16191422939300537,-0.00802401639521122,-0.1802217960357666,0.2192145735025406,-0.125033438205719,-0.1936914175748825,-0.11010327935218811,-0.20656077563762665,-0.16738934814929962,0.09456004947423935,-0.296505331993103,0.1838310807943344,0.15317952632904053,0.09722025692462921,-0.11270641535520554,-0.20012815296649933,0.3295028805732727,0.316754013299942,0.18610382080078125,0.23771800100803375,-0.12663720548152924,-0.11128438264131546,-0.10937865078449249,0.18638204038143158,0.015344993211328983,-0.06278691440820694,-0.037622712552547455,-0.243756964802742,-0.2820841670036316,-0.11883413046598434],[-0.3222028911113739,0.32399001717567444,0.37347522377967834,0.25523731112480164,0.28931742906570435,0.018056491389870644,0.2127114087343216,-0.18499226868152618,0.13269712030887604,-0.03218240663409233,-0.1609920859336853,-0.1639384925365448,0.26909101009368896,-0.3205556571483612,0.32563701272010803,-0.1333068311214447,-0.13710473477840424,0.38423869013786316,0.13542860746383667,-0.316364586353302,0.10069696605205536,0.06402608007192612,-0.2920163571834564,-0.1774502545595169,0.1863718032836914,-0.19055341184139252,-0.1214984580874443,-0.4155811667442322,-0.14438004791736603,0.25211527943611145],[0.1928296834230423,-0.06883932650089264,0.09817666560411453,0.019745763391256332,-0.3284587860107422,-0.3845148980617523,0.048491742461919785,0.04669404774904251,-0.2937726676464081,-0.09125766903162003,0.08580183237791061,0.35580727458000183,0.011355899274349213,-0.1448899805545807,-0.3201428949832916,0.22554782032966614,0.18731513619422913,0.16623924672603607,0.3908909261226654,0.09612493216991425,-0.10792919248342514,0.2612578570842743,0.2152542918920517,-0.33830273151397705,-0.3932385742664337,0.006856447551399469,-0.07407491654157639,-0.0006674843607470393,-0.04188922792673111,0.16311097145080566],[0.3126154839992523,-0.19179782271385193,0.022838803008198738,-0.32327261567115784,0.12333980947732925,-0.29574552178382874,-0.03398251160979271,-0.07829736918210983,-0.15201503038406372,0.12362119555473328,0.06132642179727554,-0.044901441782712936,0.19954870641231537,-0.33184343576431274,0.2874625027179718,0.17789830267429352,-0.2276882380247116,-0.2354336977005005,-0.09134118258953094,-0.18475061655044556,-0.08695446699857712,0.3943539261817932,0.2295149266719818,-0.21621660888195038,-0.41174015402793884,-0.017987485975027084,0.35066747665405273,0.06310270726680756,-0.009954791516065598,0.30796176195144653],[-0.15662290155887604,-0.3936040699481964,-0.23712530732154846,-0.03938541188836098,-0.3376767635345459,0.1508391797542572,0.16691240668296814,-0.10582154989242554,-0.06928867846727371,0.04340000078082085,-0.07791750878095627,-0.07948514074087143,-0.054098960012197495,-0.13867540657520294,-0.20660735666751862,0.2759411334991455,-0.018563995137810707,-0.4049288332462311,0.24609464406967163,0.11712761223316193,0.15771493315696716,-0.25097623467445374,-0.038833457976579666,-0.13996310532093048,-0.42090457677841187,-0.07202483713626862,0.2946152985095978,0.2687905728816986,0.3090210556983948,-0.31193968653678894],[-0.35544121265411377,-0.20572179555892944,0.40813693404197693,0.2724136710166931,-0.12866093218326569,-0.08772142231464386,0.35140880942344666,-0.23940914869308472,0.20157098770141602,0.02752138115465641,-0.23998871445655823,-0.2533750832080841,-0.14770378172397614,-0.08097266405820847,-0.24585337936878204,-0.18606296181678772,-0.25846022367477417,-0.4162398874759674,-0.07186692953109741,-0.16411414742469788,-0.14215467870235443,-0.3404606282711029,0.2805984616279602,0.2405584454536438,0.13678747415542603,0.23230208456516266,0.15790574252605438,-0.0030854702927172184,0.12189026176929474,-0.20145677030086517],[-0.16116856038570404,-0.38347479701042175,-0.2765873074531555,0.04792659357190132,-0.2711852490901947,-0.17408683896064758,-0.11988894641399384,0.4392591714859009,-0.0029597117099910975,-0.20024937391281128,0.08696826547384262,0.04580146446824074,-0.10996079444885254,0.06156624108552933,0.03225016966462135,0.34334203600883484,0.3047061860561371,-0.28792858123779297,0.11478453874588013,-0.12291694432497025,-0.005985606461763382,0.3768608868122101,-0.2828574478626251,-0.12734515964984894,-0.20807500183582306,-0.00763309933245182,-0.109449602663517,0.3759879469871521,0.05639392510056496,0.0840270072221756],[0.05721033364534378,0.3285336494445801,-0.28687751293182373,-0.2384539097547531,-0.19928258657455444,0.3910517990589142,-0.07982184737920761,0.10569382458925247,-0.2771196663379669,0.06720373779535294,-0.27248290181159973,0.24954383075237274,0.2487197071313858,-0.23140890896320343,0.20679877698421478,-0.056601379066705704,-0.25617966055870056,0.2543656527996063,-0.1623532474040985,-0.12094257771968842,-0.028493033722043037,0.10441695898771286,0.12713101506233215,0.056489888578653336,0.20120130479335785,0.23149491846561432,0.39301013946533203,0.2691548466682434,0.0860912874341011,-0.0821940079331398],[-0.0045267129316926,0.3807404339313507,-0.25094395875930786,-0.14192232489585876,0.19725720584392548,0.33475711941719055,0.1660630851984024,-0.04165291041135788,0.019604360684752464,-0.27644166350364685,-0.4084709584712982,-0.1923695057630539,-0.28888848423957825,-0.09637980908155441,-0.41535279154777527,-0.08384536951780319,-0.3801460266113281,0.13026700913906097,0.2730158567428589,-0.28694948554039,0.34088003635406494,-0.0532703623175621,-0.3205002546310425,-0.021480686962604523,0.15776948630809784,-0.15906086564064026,-0.3280009627342224,-0.1658371388912201,0.26831260323524475,-0.053693853318691254]],[[-0.20474720001220703,0.20395375788211823,-0.1884816288948059],[-0.33514127135276794,0.36154019832611084,-0.05490187928080559],[-0.10582198202610016,-0.12089718133211136,0.18478389084339142],[-0.3852720558643341,0.5356190800666809,-0.13703793287277222],[-0.3761065900325775,0.523150622844696,0.2943921983242035],[-0.4897330105304718,0.5105332136154175,0.10680168122053146],[-0.16925044357776642,-0.3364890515804291,0.22121421992778778],[0.4403822422027588,-0.3090018033981323,0.22201839089393616],[0.10768003016710281,-0.1907825767993927,-0.023984402418136597],[-0.32475531101226807,0.1878313273191452,0.28317034244537354],[-0.1033155545592308,0.037263162434101105,0.4322621822357178],[-0.10355471074581146,0.17785361409187317,-0.47523051500320435],[0.2828524708747864,0.3683536946773529,0.4656291604042053],[-0.07631029188632965,0.4383764863014221,0.4966108500957489],[-0.5147141814231873,0.04555400460958481,0.37777969241142273],[0.1846776306629181,-0.003312918124720454,0.43655073642730713],[-0.527848482131958,-0.2615078389644623,-0.2554587423801422],[0.456470251083374,0.033539820462465286,-0.31590536236763],[-0.1704067885875702,-0.17393384873867035,0.2730560898780823],[0.21413473784923553,0.4395436942577362,0.4604155123233795]],[[0.34723880887031555,0.2502097189426422,0.7589621543884277,0.4713752269744873,-0.5604060888290405],[-0.2287648618221283,0.1481337994337082,0.732946515083313,0.6915671825408936,-0.00270665786229074],[-0.5369220972061157,0.11269842833280563,0.07753694802522659,-0.33705654740333557,0.3851058781147003],[-0.6468409299850464,0.003413781290873885,0.36486518383026123,-0.4616479277610779,-0.3850719630718231],[0.6267805099487305,0.386935293674469,-0.7244519591331482,-0.3038637042045593,0.34903818368911743],[0.30940645933151245,-0.3256213665008545,-0.6989253759384155,0.08211427181959152,0.3818516135215759],[-0.560290515422821,-0.5507102012634277,0.37751564383506775,-0.117955282330513,-0.23195460438728333],[0.17760685086250305,-0.38429808616638184,0.18558906018733978,0.5245714783668518,-0.40468478202819824]],[[0.19164951145648956,1.0877941846847534]]],"biases":[[0.07041886448860168,0.11772694438695908,0.021786687895655632,1.064972162246704,1.0552765130996704,1.017447829246521,-0.07027335464954376,-0.020469173789024353,0.026006048545241356,0.05040464922785759,0.08934686332941055,0.10275441408157349],[0.07015981525182724,0.05880644544959068,0.07167734950780869,0.09108775109052658,0.06601767987012863,1.0666208267211914,1.0526924133300781,1.0502989292144775,1.126098394393921,1.07160222530365,-0.025345763191580772,-0.01815382018685341,0.01471556443721056,0.06633162498474121,-0.024321766570210457,0.06166970729827881,0.05850538611412048,0.06877013295888901,0.10509928315877914,0.0679352730512619],[0.10796691477298737,0.07357031852006912,1.1400595903396606,1.081322431564331,-0.01625538244843483,-0.0060341437347233295,0.1167258471250534,0.10617644339799881],[-0.0596444196999073]],"hidden_weights":[[[0.4998404085636139,0.0924990102648735,-0.1390262395143509],[-0.1307268589735031,-0.2625216245651245,-0.10219907760620117],[0.15562020242214203,-0.7934141159057617,0.010028136894106865],[-0.2320183366537094,0.14228399097919464,0.2276955544948578],[0.03169018775224686,0.13813966512680054,0.30140596628189087],[0.032517604529857635,-0.20021380484104156,0.7491961717605591],[0.04909919202327728,-0.025583824142813683,-0.12953977286815643],[-0.2294744998216629,0.3646206557750702,-0.05227037891745567],[0.12605354189872742,0.05462132766842842,0.40076765418052673],[0.7035855650901794,0.33805105090141296,0.11085279285907745],[-0.13369840383529663,-0.11856497824192047,-0.041452739387750626],[-0.22016222774982452,-0.36571431159973145,-0.1107049509882927]],[[-0.26906082034111023,-0.2726367712020874,0.3124459683895111,0.16691605746746063,0.13036465644836426],[0.07322075963020325,-0.02941277250647545,0.3308674991130829,0.3793897032737732,0.1990615874528885],[0.04704038053750992,0.046400606632232666,-0.05837368220090866,-0.242232546210289,0.2607423961162567],[-0.11190180480480194,0.19756683707237244,-0.017367081716656685,-0.042744703590869904,-0.1947380006313324],[-0.018508221954107285,-0.41557034850120544,0.08618716150522232,0.35678884387016296,-0.1896919310092926],[0.24761328101158142,-0.4986257255077362,0.41171374917030334,-0.42629560828208923,0.22762924432754517],[0.3596464693546295,-0.23043949902057648,0.10353834927082062,0.08878117054700851,-0.10978686809539795],[-0.14674212038516998,0.08067597448825836,0.3703164756298065,-0.005477227736264467,-0.342051237821579],[-0.1626090109348297,0.04598136618733406,0.2705710232257843,0.5264250636100769,0.3987203538417816],[-0.0756671354174614,0.1103394404053688,-0.06284079700708389,0.18256863951683044,0.4537862241268158],[-0.07999144494533539,-0.3444540500640869,-0.2059711068868637,-0.01435696892440319,0.2707771360874176],[0.12176308780908585,-0.12563858926296234,-0.00923292525112629,-0.10467984527349472,0.17266836762428284],[-0.1674167960882187,0.07467345893383026,0.07684294879436493,-0.09300711005926132,-0.35383397340774536],[-0.0821278914809227,-0.33839139342308044,-0.04106183722615242,0.1566593497991562,-0.08113519102334976],[0.22421610355377197,-0.2573848366737366,-0.05948669835925102,-0.1888236105442047,0.3138304650783539],[0.6451377272605896,0.006275567226111889,0.09596598893404007,0.39726224541664124,0.012826070189476013],[0.18500365316867828,0.2876521348953247,0.7166820168495178,-0.05033671110868454,0.19321684539318085],[-0.19179005920886993,0.1501804143190384,0.02490326389670372,-0.06520668417215347,-0.10329999029636383],[-0.5520327091217041,-0.08502543717622757,0.5120282173156738,0.0830320194363594,-0.11419043689966202],[0.3189382255077362,-0.6242699027061462,0.3251664340496063,0.5013829469680786,0.16359707713127136]],[[0.02918081171810627,-0.10802477598190308],[-0.2641196548938751,-0.3914824426174164],[0.2873730957508087,-0.8968802094459534],[-0.1437075436115265,0.03487468883395195],[0.14315563440322876,-0.4347527325153351],[0.5491697192192078,0.25414013862609863],[-0.7768990397453308,-0.5434918403625488],[-0.02978658862411976,-0.1625450849533081]]],"hidden_biases":[],"train_loss":0.02043696865439415,"val_loss":0.043123263865709305,"epochs":10},{"fliename":"D:\\Instincts\\AI-ML\\Neural_Server\\Datasets\\MTS_Search\\Dataset\\Flight001.xlsx","layers":"2","neurons":[10,10,1,1],"ptype":"Time Series","test_split":0.1,"validation_split":0.1,"learning_rate":0.0003,"Batch_size":45,"Optimizer":"Adam","dropouts":[0.1,0.1,0.1,0.1],"framework":"PyTorch","date":1613584925875,"layers_name":["LSTM(18, 10, dropout=0.1)","Linear(in_features=10, out_features=1, bias=True)","LSTM(10, 10, dropout=0.1)"],"weights":[[[0.22091569006443024,0.28129443526268005,0.20031003654003143,-0.07359274476766586,-0.04706616327166557,-0.23159262537956238,-0.17295236885547638,0.1147705689072609,0.2995970845222473,-0.21756193041801453,-0.30612584948539734,-0.03022780641913414,0.189898282289505,0.10080749541521072,-0.15472294390201569,0.2868904769420624,-0.024219907820224762,-0.18616285920143127],[-0.2558121383190155,0.014539163559675217,-0.25563567876815796,0.26065436005592346,0.18589121103286743,-0.10295841842889786,-0.020640604197978973,0.10848253220319748,0.13125012814998627,-0.026178117841482162,0.31097641587257385,0.2548026442527771,-0.1893068552017212,0.14882680773735046,-0.2532782256603241,0.17290587723255157,-0.005648032296448946,0.04278182238340378],[0.049059998244047165,-0.15558578073978424,-0.15875311195850372,0.04572520777583122,0.2231171429157257,0.16012178361415863,0.047691065818071365,0.24480320513248444,0.08433786779642105,-0.11214283108711243,-0.1367650032043457,0.0037311743944883347,-0.027891147881746292,0.0009733979240991175,-0.30120888352394104,-0.16062916815280914,-0.15431034564971924,0.009574832394719124],[0.1327618807554245,-0.1194273829460144,0.09464617818593979,0.18481910228729248,-0.2779904007911682,0.20646822452545166,-0.0992242842912674,0.21776558458805084,0.03392947465181351,-0.17587777972221375,-0.29459595680236816,0.19824518263339996,0.034358199685811996,0.1452944278717041,0.06875404715538025,0.2525675296783447,-0.1712605208158493,0.028234563767910004],[-0.16724339127540588,0.003274566726759076,-0.30077648162841797,-0.24327421188354492,0.12753020226955414,0.14075502753257751,0.312176913022995,0.16156035661697388,-0.2679384648799896,-0.060323622077703476,0.0656510666012764,-0.28431668877601624,-0.200653076171875,-0.11971509456634521,-0.033223580569028854,0.014307959005236626,-0.18590249121189117,-0.009983873926103115],[-0.022659610956907272,0.03771601989865303,0.0339491032063961,0.0254123043268919,-0.11013410240411758,-0.15257756412029266,-0.178886279463768,-0.09412063658237457,0.17903299629688263,0.15988945960998535,-0.06545048952102661,0.05145520344376564,-0.01984429731965065,-0.06990056484937668,0.3061181306838989,-0.010000898502767086,0.10071712732315063,0.08658865839242935],[0.3037746250629425,-0.11354745179414749,-0.1281510591506958,-0.063870370388031,0.27002838253974915,-0.11134008318185806,-0.1330399513244629,-0.2069484293460846,0.22144566476345062,0.2695983946323395,-0.019043462350964546,-0.031673822551965714,0.057697687298059464,-0.04878813773393631,-0.2699272930622101,0.14966773986816406,0.0038550368044525385,0.10980384051799774],[-0.2917430102825165,-0.21426020562648773,-0.168527290225029,-0.2898107171058655,0.28427380323410034,-0.18254011869430542,0.06704036891460419,-0.29528337717056274,0.17542651295661926,0.08276444673538208,-0.27622053027153015,-0.25996002554893494,0.006542776711285114,-0.08335188031196594,-0.1859830617904663,0.1787412166595459,-0.20881016552448273,0.10600539296865463],[0.1467532068490982,0.00306337489746511,-0.24708102643489838,0.0729164332151413,0.16508297622203827,0.2810051739215851,0.19406987726688385,0.2555123567581177,-0.12192150205373764,0.21566753089427948,-0.010450715199112892,0.28122660517692566,-0.1837986558675766,0.2008555680513382,-0.18131066858768463,-0.19455257058143616,-0.15876825153827667,0.052214447408914566],[-0.2666546404361725,-0.16240130364894867,-0.27901366353034973,0.2913559675216675,0.09177959710359573,0.048750776797533035,-0.16293618083000183,0.07699324935674667,-0.016562476754188538,0.11360026895999908,0.00010743282473413274,-0.1789095252752304,0.16913044452667236,-0.26821649074554443,0.018239367753267288,-0.3131219446659088,0.15295074880123138,0.045572299510240555],[-0.18674346804618835,0.2013223022222519,0.09883984178304672,0.033080849796533585,-0.282731294631958,-0.21204572916030884,0.20486514270305634,0.14537104964256287,0.24384447932243347,-0.04938371479511261,0.15295346081256866,-0.03220484405755997,0.0365232415497303,0.13291507959365845,0.2820872664451599,0.28680360317230225,0.1649402230978012,0.0836021676659584],[0.27924203872680664,0.0007403218769468367,-0.08240082114934921,-0.277173787355423,0.16733740270137787,-0.14056137204170227,-0.02077663503587246,0.004452533088624477,0.23639659583568573,-0.24222664535045624,0.2337261289358139,0.20464889705181122,0.28988751769065857,-0.17655690014362335,-0.005966482684016228,0.026843158528208733,0.030215231701731682,-0.20930665731430054],[-0.017433911561965942,-0.2764744460582733,-0.07104641944169998,-0.08773674815893173,-0.250652551651001,0.2576565742492676,-0.003195476485416293,0.21911956369876862,-0.14956317842006683,-0.22785860300064087,0.0811518132686615,-0.06290911883115768,-0.3035036027431488,0.1722012162208557,-0.184545636177063,-0.12251745909452438,-0.04089059308171272,-0.29553282260894775],[0.06934690475463867,0.06248877942562103,-0.3094189465045929,-0.0928996279835701,-0.20203177630901337,-0.20920954644680023,-0.12929150462150574,-0.26332053542137146,-0.2509930729866028,-0.16315604746341705,0.147931307554245,-0.10088691115379333,-0.001361877890303731,0.04903599992394447,0.06640387326478958,0.12467478960752487,-0.281236857175827,0.11933041363954544],[0.2894442081451416,0.29795897006988525,-0.18894679844379425,0.03447403758764267,-0.2032965123653412,-0.028879279270768166,0.002560915658250451,0.1843014359474182,0.2078721523284912,-0.06765691190958023,-0.24540793895721436,-0.26575472950935364,-0.26975905895233154,-0.2843376696109772,-0.11407239735126495,0.2487366497516632,-0.027579305693507195,-0.0921495109796524],[-0.058248136192560196,-0.2692383825778961,0.3033278286457062,0.08134831488132477,-0.24082648754119873,0.27561601996421814,-0.006128690671175718,-0.20073746144771576,-0.012664546258747578,0.010674573481082916,-0.16383147239685059,0.19155867397785187,0.3160659074783325,0.04717635363340378,-0.015394520945847034,0.1256842017173767,0.1307828277349472,0.050253976136446],[0.13352645933628082,-0.08274267613887787,0.056693922728300095,0.0566863976418972,-0.0005712813581340015,0.011798988096415997,0.1327844262123108,-0.007988504134118557,0.125187948346138,-0.05121000111103058,0.21464648842811584,0.18327242136001587,0.1967466026544571,-0.10824757814407349,-0.1208827942609787,-0.2889949083328247,-0.11797742545604706,-0.287971556186676],[0.17033539712429047,-0.29526862502098083,-0.19975507259368896,-0.1154419332742691,0.18262316286563873,-0.05274931341409683,0.2989422380924225,0.2513013780117035,0.2658300995826721,-0.13123473525047302,-0.1851053237915039,-0.278007447719574,-0.12098400294780731,-0.17198963463306427,-0.041897963732481,-0.09384647756814957,0.2540970742702484,-0.18278345465660095],[0.303525447845459,0.2413134127855301,-0.24417176842689514,-0.2583049535751343,-0.11172248423099518,-0.07636808604001999,0.1878451555967331,-0.13183683156967163,0.0359489843249321,0.19689823687076569,0.23265840113162994,0.027840983122587204,-0.1347612589597702,0.14202724397182465,0.2707541882991791,0.10972514003515244,-0.22741112112998962,0.21846133470535278],[-0.012851097621023655,0.009370943531394005,0.08633322268724442,-0.28224053978919983,-0.031765419989824295,-0.3023121654987335,0.20008131861686707,0.2257363349199295,0.2869926393032074,-0.27257081866264343,0.10499696433544159,-0.28652068972587585,-0.0968855619430542,-0.024790411815047264,0.03241610527038574,-0.04520818591117859,-0.27155613899230957,-0.15495645999908447],[-0.20561495423316956,-0.2908257246017456,-0.1398094892501831,0.3078404664993286,0.10736558586359024,-0.06167835742235184,0.05189000070095062,-0.05992284417152405,-0.11058390885591507,-0.09679257124662399,-0.18284644186496735,0.3100474774837494,-0.11507142335176468,-0.26416438817977905,-0.12655645608901978,-0.022054867818951607,0.03613695874810219,0.24961064755916595],[-0.20140810310840607,-0.09566821902990341,0.10187460482120514,0.053396884351968765,-0.13895656168460846,-0.19328823685646057,0.12301706522703171,0.11778561025857925,-0.15997478365898132,0.2197883576154709,-0.11960601806640625,0.12569659948349,-0.3110593259334564,0.04110374674201012,-0.29492688179016113,-0.14034108817577362,0.1461186408996582,-0.15703998506069183],[-0.1369308978319168,-0.01649865135550499,0.19963204860687256,0.07668174058198929,0.17855824530124664,0.02887016348540783,-0.08574081212282181,-0.2675485610961914,-0.25500163435935974,0.2043275684118271,0.15616467595100403,0.23557408154010773,-0.19218145310878754,0.15675629675388336,0.019238460808992386,0.2639545500278473,0.02452763356268406,-0.033682599663734436],[-0.25514668226242065,0.21128645539283752,0.019205035641789436,0.20232772827148438,0.20684483647346497,-0.25403234362602234,0.032854195684194565,-0.1686515361070633,-0.0604446679353714,-0.003583370242267847,-0.015334890224039555,-0.23826971650123596,0.0987463966012001,-0.06815700978040695,0.05213604494929314,-0.08917655795812607,0.28522759675979614,-0.22998584806919098],[0.3145829439163208,-0.27840787172317505,0.09761083871126175,-0.20892709493637085,-0.15227283537387848,-0.09032309055328369,0.1172480434179306,-0.16603200137615204,-0.29893210530281067,-0.3178189992904663,0.2357918918132782,-0.21995890140533447,0.0043731932528316975,0.20839925110340118,0.0768507793545723,0.14246897399425507,-0.10297954827547073,0.21412530541419983],[0.2617659270763397,-0.2441088855266571,-0.20293672382831573,0.036535851657390594,0.27829617261886597,-0.08344737440347672,-0.29749518632888794,-0.06907135993242264,-0.1515723615884781,0.06912212073802948,-0.2582278251647949,-0.10071512311697006,-0.2083621323108673,-0.2968040406703949,0.042561352252960205,-0.18855492770671844,-0.16010861098766327,-0.30702802538871765],[-0.1866707056760788,0.14914070069789886,-0.04171149805188179,-0.2711234986782074,-0.2701483964920044,0.20407673716545105,0.015197870321571827,-0.13071918487548828,0.005874883849173784,-0.047635409981012344,-0.1714819371700287,-0.11293074488639832,-0.03344522789120674,0.25398963689804077,0.2867126166820526,-0.07507728785276413,-0.18969891965389252,-0.21282555162906647],[-0.15433362126350403,0.2523272633552551,-0.14036832749843597,-0.2406385987997055,-0.0911741629242897,0.2973286509513855,-0.11878103762865067,-0.255218505859375,-0.23136146366596222,-0.30669695138931274,-0.03560394048690796,0.09149722754955292,0.12663410604000092,-0.31226611137390137,0.16559946537017822,-0.027546217665076256,-0.019680943340063095,-0.11197185516357422],[-0.1643805205821991,-0.11858778446912766,0.13451282680034637,-0.06797127425670624,-0.008178981952369213,0.21260030567646027,0.2818869948387146,0.05638015270233154,-0.15204527974128723,-0.009986571036279202,0.2569359838962555,-0.17382782697677612,0.09409114718437195,-0.1485452502965927,0.13986222445964813,-0.2567344009876251,-0.1576484888792038,0.021804960444569588],[0.038823146373033524,-0.08019325137138367,0.12534551322460175,0.21774938702583313,0.22187016904354095,0.05746965482831001,-0.05952953174710274,0.2687225937843323,-0.15011706948280334,-0.1382581740617752,0.008955691009759903,-0.21215079724788666,-0.24890877306461334,0.30196213722229004,0.15932117402553558,-0.2679921090602875,0.24373143911361694,-0.254208505153656],[-0.2946854829788208,-0.29168209433555603,-0.2940147817134857,-0.1741926670074463,-0.030655717477202415,0.09366454184055328,0.05031747743487358,0.03355415537953377,0.25024494528770447,0.1961323767900467,0.26051825284957886,-0.09107896685600281,-0.10875719785690308,0.303072065114975,0.1371607929468155,-0.21217967569828033,0.13085904717445374,0.15332329273223877],[0.2944934666156769,-0.019221937283873558,0.00971927959471941,-0.206265389919281,-0.00273376377299428,-0.2793463468551636,-0.016013244166970253,-0.1523813009262085,0.29730069637298584,0.239163339138031,-0.11334571242332458,-0.013364412821829319,0.08690950274467468,0.29492104053497314,-0.2956889271736145,-0.07319605350494385,0.011115534231066704,-0.04840269684791565],[0.06658818572759628,0.1961824893951416,0.1810939460992813,-0.2472555935382843,0.03425155207514763,0.2350408285856247,-0.0904020294547081,0.3165704607963562,0.20476725697517395,-0.02516457624733448,0.10156086087226868,0.20233160257339478,-0.17050309479236603,0.11905128508806229,0.3010418713092804,0.321338415145874,-0.14640679955482483,-0.005659083370119333],[-0.22765383124351501,0.2711639106273651,0.05339299142360687,-0.21279925107955933,-0.2468997687101364,0.024976374581456184,0.028534160926938057,-0.15847577154636383,0.19243372976779938,0.035752903670072556,0.29570305347442627,-0.2814745306968689,-0.0326189287006855,0.2943257987499237,-0.1629904955625534,-0.28581953048706055,0.2869936227798462,0.07679379731416702],[-0.15775762498378754,0.15414869785308838,0.2745743989944458,-0.03087015263736248,0.17685550451278687,0.25196874141693115,0.07288608700037003,0.16091163456439972,-0.12815706431865692,-0.11272376030683517,0.025993285700678825,0.15986628830432892,-0.22002263367176056,-0.1343068778514862,0.20929309725761414,0.06485895067453384,-0.09115161746740341,0.03714736923575401],[0.2939082384109497,-0.32016730308532715,0.0029368519317358732,-0.2975478172302246,-0.20309381186962128,0.1793413609266281,0.18269848823547363,0.04966450482606888,-0.2244471311569214,0.10148461908102036,0.21409714221954346,-0.15268152952194214,0.21622717380523682,-0.04948989301919937,-0.1943332850933075,0.11371543258428574,0.07052692025899887,0.10658140480518341],[-0.22526967525482178,-0.16952401399612427,0.1827010065317154,0.08752947300672531,0.22694730758666992,-0.27886098623275757,0.2852291464805603,0.15019401907920837,-0.0399685874581337,0.24264982342720032,0.28666454553604126,0.27706849575042725,0.016600938513875008,-0.014584913849830627,-0.060158759355545044,0.16765668988227844,-0.19874702394008636,0.023288505151867867],[-0.29093557596206665,0.23269204795360565,0.15931013226509094,-0.30989953875541687,-0.022810159251093864,-0.19439482688903809,0.28606468439102173,-0.08587536215782166,0.22775138914585114,0.1611625701189041,-0.07315541803836823,-0.1094568744301796,-0.08905014395713806,-0.15041615068912506,-0.28797611594200134,0.14990320801734924,0.09497729688882828,0.11959251761436462],[0.2020423859357834,0.14672760665416718,0.1333814412355423,0.29592040181159973,0.03285609185695648,-0.06768987327814102,-0.08212286233901978,0.1750224083662033,0.18095003068447113,-0.028576673939824104,0.19555264711380005,0.27888110280036926,-0.2514989376068115,0.1805836409330368,-0.32166391611099243,0.03472919389605522,0.07799237966537476,0.20622889697551727],[-0.1481129676103592,0.13178405165672302,-0.2912604808807373,0.09989222139120102,-0.17170536518096924,0.14582905173301697,-0.03291328623890877,0.23519577085971832,0.1809081882238388,0.10307232290506363,-0.255719929933548,-0.06610175967216492,0.2543315887451172,0.2814669609069824,0.30210253596305847,-0.20401516556739807,0.24655559659004211,0.11661805957555771]],[[0.09964922070503235,0.28138625621795654,0.2710191011428833,0.037501294165849686,-0.045837972313165665,0.007521948777139187,-0.26873502135276794,0.26835304498672485,-0.24910157918930054,0.2917473316192627]],[[0.24362996220588684,0.10833752155303955,-0.2766481339931488,0.2854851186275482,-0.21577025949954987,0.10895609855651855,-0.19791316986083984,0.04131263494491577,-0.3161974549293518,0.26502373814582825],[-0.057979583740234375,-0.2811637818813324,0.26840725541114807,-0.06109091639518738,0.05481812357902527,-0.30418339371681213,0.014780968427658081,0.22194746136665344,-0.22058559954166412,0.29468223452568054],[0.3141752779483795,-0.2640500068664551,-0.16320735216140747,0.025568664073944092,-0.1049397885799408,0.038235485553741455,-0.027711540460586548,0.06372669339179993,-0.03545570373535156,-0.1375090777873993],[0.053085893392562866,-0.22338718175888062,0.10320186614990234,0.19952723383903503,-0.21718263626098633,0.10683983564376831,-0.18771405518054962,-0.233363538980484,-0.05594080686569214,0.16874241828918457],[-0.10683222115039825,-0.21494466066360474,-0.024520695209503174,0.29415735602378845,-0.09307293593883514,-0.2917552590370178,-0.1859542280435562,0.24426332116127014,0.1518382728099823,0.14505672454833984],[-0.2417745590209961,0.3076651394367218,-0.09672513604164124,-0.20176753401756287,0.047880351543426514,0.2683672606945038,-0.06924547255039215,0.3038342297077179,-0.08209677040576935,0.24406251311302185],[0.10998755693435669,0.22878798842430115,0.2298913300037384,0.09443947672843933,-0.20456886291503906,-0.2674061059951782,-0.1692819744348526,0.08331915736198425,-0.09560182690620422,-0.28776705265045166],[0.2623988091945648,-0.06457832455635071,-0.047023266553878784,0.28048446774482727,-0.16148307919502258,-0.23179349303245544,0.13719427585601807,0.2602601945400238,0.16839975118637085,0.035320162773132324],[0.17117249965667725,-0.12343539297580719,-0.21585941314697266,0.08178618550300598,-0.16700655221939087,0.27257898449897766,0.31239983439445496,0.05575859546661377,-0.16075243055820465,-0.010947376489639282],[0.10368108749389648,0.1602371335029602,0.1610105037689209,0.037259817123413086,-0.22890117764472961,-0.05231174826622009,-0.23619148135185242,-0.20109334588050842,0.03813090920448303,-0.22158551216125488],[-0.14108654856681824,0.17612531781196594,0.11309990286827087,0.07089650630950928,-0.06050136685371399,0.20227816700935364,-0.30259424448013306,0.28606685996055603,0.17971745133399963,0.23970356583595276],[-0.05495637655258179,-0.26037734746932983,-0.01398015022277832,0.09958583116531372,0.19350698590278625,-0.20070812106132507,-0.18087662756443024,-0.03975421190261841,0.09352540969848633,0.025062203407287598],[0.2850692570209503,-0.2906153202056885,-0.24761493504047394,0.20015224814414978,0.15101739764213562,-0.25992652773857117,0.24459049105644226,-0.256197988986969,0.2965780794620514,-0.06563162803649902],[0.06777524948120117,-0.14310014247894287,-0.19423817098140717,0.012002438306808472,0.1069929301738739,0.17794516682624817,-0.10821281373500824,-0.06592193245887756,0.04246795177459717,-0.0849209874868393],[0.20227530598640442,0.005720943212509155,-0.15089435875415802,-0.04897826910018921,-0.1539594531059265,0.2362629473209381,0.011606454849243164,-0.2201375961303711,0.17671877145767212,0.07383424043655396],[0.15189909934997559,-0.20665046572685242,-0.13015030324459076,-0.08327054977416992,0.021423757076263428,-0.05464285612106323,-0.25358718633651733,-0.053228676319122314,-0.22960078716278076,-0.0767623782157898],[0.2983560264110565,-0.04263940453529358,0.18917664885520935,0.16045138239860535,-0.06294625997543335,0.08403924107551575,-0.024875521659851074,0.06757360696792603,-0.06412610411643982,0.26703396439552307],[-0.004869610071182251,-0.2594444751739502,-0.27891892194747925,0.11381244659423828,-0.19562724232673645,-0.1319108009338379,-0.15289853513240814,0.18391743302345276,0.29749080538749695,-0.3090648353099823],[-0.12867912650108337,0.28493431210517883,-0.2999388873577118,0.00710025429725647,-0.16071537137031555,-0.036651611328125,-0.18932659924030304,0.21991673111915588,0.09744119644165039,-0.1672275811433792],[-0.11689122021198273,0.13420367240905762,-0.17812713980674744,0.2528397738933563,0.2509366571903229,0.06006625294685364,-0.15025648474693298,0.13800516724586487,-0.09451071918010712,0.08124375343322754],[-0.11428263783454895,-0.07653683423995972,0.12195894122123718,0.17337235808372498,0.09207874536514282,0.21680429577827454,-0.06740391254425049,0.18163800239562988,0.020146101713180542,-0.14868001639842987],[0.07529592514038086,-0.11868025362491608,-0.2504459023475647,-0.13441936671733856,0.04125326871871948,0.13297298550605774,0.28404274582862854,-0.021451592445373535,0.05525818467140198,0.28118088841438293],[-0.28387051820755005,0.19532886147499084,0.055434226989746094,0.20014753937721252,-0.27002814412117004,0.19811508059501648,0.16406533122062683,-0.1626039743423462,0.24483194947242737,0.13339844346046448],[-0.2683291733264923,-0.2694042921066284,0.16487669944763184,-0.04323917627334595,-0.18932677805423737,0.1771567463874817,-0.046607792377471924,0.2275778353214264,0.06931671500205994,0.0488908588886261],[0.0438959002494812,-0.25904032588005066,0.22832044959068298,-0.17233778536319733,0.0924597680568695,-0.03757593035697937,-0.2104572355747223,0.01359492540359497,-0.09453457593917847,-0.03641211986541748],[-0.21606600284576416,-0.1676018387079239,-0.007753461599349976,0.26613083481788635,-0.1446884125471115,-0.10798870027065277,0.20728549361228943,-0.17743049561977386,-0.18338260054588318,0.29927775263786316],[0.15041789412498474,0.09235066175460815,-0.13926398754119873,0.1748320758342743,0.2743616998195648,0.11104691028594971,0.3145689070224762,-0.2809451222419739,0.11938467621803284,-0.055658549070358276],[0.15441468358039856,-0.30739349126815796,0.2935156524181366,-0.13804905116558075,-0.2840742766857147,0.29658934473991394,-0.04215541481971741,-0.07779215276241302,-0.16389822959899902,0.025099903345108032],[-0.04829022288322449,0.2408711016178131,0.0867474377155304,-0.04642808437347412,0.01130703091621399,-0.2728427052497864,0.26711657643318176,-0.10993634164333344,-0.25903788208961487,0.1698639988899231],[-0.2868528962135315,-0.10527446866035461,-0.2190776765346527,0.17759373784065247,-0.23134779930114746,-0.17355503141880035,0.10800525546073914,0.26160886883735657,-0.2554686367511749,0.09691905975341797],[0.09956610202789307,-0.21446457505226135,0.25664469599723816,0.05856126546859741,0.2758447825908661,-0.22794169187545776,0.06052500009536743,-0.19408750534057617,0.22707995772361755,0.023071080446243286],[0.16125720739364624,0.2416636049747467,-0.2955990433692932,-0.02102208137512207,0.0870710015296936,-0.2274271696805954,-0.0633690357208252,0.20695260167121887,-0.22371789813041687,-0.24719467759132385],[-0.24643537402153015,-0.016281306743621826,0.294112890958786,0.012792348861694336,-0.17996428906917572,-0.018387198448181152,0.026579946279525757,0.054497718811035156,0.14298370480537415,0.17338591814041138],[0.07768550515174866,0.24504396319389343,-0.08145847916603088,0.004204869270324707,0.16540545225143433,-0.21325290203094482,-0.3089138865470886,-0.2524321973323822,0.11904573440551758,0.10523751378059387],[-0.11800868809223175,-0.31537818908691406,-0.2806309759616852,-0.0005963444709777832,0.14379200339317322,0.21834394335746765,-0.13679440319538116,0.27284160256385803,-0.28839269280433655,0.037098199129104614],[0.056334853172302246,-0.2916671931743622,-0.04174646735191345,0.16050773859024048,0.10652869939804077,0.037507832050323486,0.22179487347602844,0.08253639936447144,-0.2907141149044037,0.06564494967460632],[0.07570508122444153,0.0066435933113098145,-0.0854654461145401,0.029911428689956665,0.23582658171653748,0.18383994698524475,-0.21273837983608246,-0.06997378170490265,0.02178138494491577,-0.04989790916442871],[0.17195039987564087,-0.15455842018127441,0.2662748396396637,0.2091064751148224,-0.20569410920143127,0.2212982475757599,-0.28869178891181946,0.2773759067058563,0.027524322271347046,0.10438084602355957],[-0.272413045167923,0.14717090129852295,0.0039262473583221436,0.2638384997844696,-0.19752533733844757,-0.009347915649414062,0.3082825839519501,-0.2932104766368866,-0.06357857584953308,0.005605250597000122],[0.2229776680469513,0.11470299959182739,-0.09980307519435883,0.02085074782371521,-0.27957582473754883,0.09470018744468689,-0.08794067800045013,-0.3072149455547333,0.06474950909614563,0.25529882311820984]]],"biases":[[-0.14371132850646973,-0.22736503183841705,0.13719578087329865,-0.14395582675933838,-0.0014613536186516285,-0.18008533120155334,-0.14908435940742493,-0.06023874133825302,0.20056584477424622,0.00190628448035568,0.07802331447601318,0.2523615062236786,-0.0785466879606247,-0.042889174073934555,-0.16988535225391388,-0.001213418086990714,-0.23090873658657074,-0.30239054560661316,0.17271238565444946,-0.2932644486427307,-0.15222881734371185,0.21296651661396027,-0.13541442155838013,0.1138315498828888,0.2899942994117737,0.1585475653409958,-0.21484670042991638,-0.040781546384096146,-0.25432971119880676,-0.246612548828125,0.05526336655020714,-0.14504382014274597,0.20800578594207764,-0.21980556845664978,-0.1658344715833664,-0.24961437284946442,0.17841409146785736,-0.022922171279788017,0.2779428958892822,-0.07407309859991074],[0.20748074352741241],[-0.2020256519317627,-0.23180469870567322,-0.24019396305084229,-0.19643864035606384,0.08642730116844177,-0.03730154037475586,0.04876932501792908,-0.17003145813941956,-0.12826359272003174,-0.18217678368091583,0.28881993889808655,0.171630859375,0.05865687131881714,-0.1571110188961029,0.06327986717224121,0.16825711727142334,0.2796219289302826,0.30944904685020447,-0.30202263593673706,0.21143189072608948,-0.16268904507160187,0.12030121684074402,-0.2931790053844452,-0.2919025719165802,0.12094703316688538,-0.15531466901302338,-0.1940571516752243,-0.27594318985939026,-0.028001457452774048,-0.2995159924030304,0.29023560881614685,0.23469069600105286,-0.2720167934894562,0.0021561086177825928,-0.18909701704978943,0.05096051096916199,-0.08853226900100708,0.13839858770370483,0.12030342221260071,-0.2727058529853821]],"hidden_weights":[[[-0.1507808119058609,0.21578945219516754,0.12916405498981476,-0.11321607977151871,0.07663960009813309,0.20062410831451416,0.028125476092100143,-0.17159666121006012,0.3011561334133148,-0.30576765537261963],[0.2579123377799988,0.2681834399700165,-0.2511085271835327,0.19059383869171143,0.0544927716255188,-0.09074435383081436,0.10441125929355621,-0.011329819448292255,0.26858797669410706,-0.297576367855072],[-0.2527393698692322,0.09687970578670502,0.10525677353143692,0.23241962492465973,0.10790260881185532,-0.0749112144112587,0.01056310348212719,-0.12329927086830139,-0.20114587247371674,-0.24885933101177216],[0.14502441883087158,0.1581246256828308,0.15204179286956787,-0.20136216282844543,-0.1607530564069748,0.2283167690038681,-0.13192757964134216,-0.2689473032951355,-0.1450057476758957,-0.1126992404460907],[0.018016403540968895,-0.07856480032205582,-0.29919204115867615,0.14316946268081665,-0.04755092412233353,-0.23264069855213165,-0.011104049161076546,0.2220964878797531,0.22229328751564026,-0.29744023084640503],[0.18869058787822723,-0.006525782868266106,-0.3095106780529022,0.15378832817077637,0.003926614299416542,-0.29867714643478394,-0.08815452456474304,0.2989080548286438,0.07846830785274506,0.2111062854528427],[-0.24560710787773132,0.11868710815906525,0.12021935731172562,-0.16063271462917328,-0.09977016597986221,-0.14323291182518005,0.08304598927497864,0.0031559444032609463,-0.25140973925590515,-0.2707597613334656],[-0.022874532267451286,0.0408812016248703,-0.3120395541191101,0.15654073655605316,0.2958492338657379,-0.1361912190914154,0.2529033124446869,-0.1917198896408081,-0.0746331438422203,0.25182685256004333],[-0.15372328460216522,0.2969989478588104,-0.290528267621994,0.12224767357110977,0.20314636826515198,-0.0752444788813591,0.22657209634780884,-0.1863519698381424,-0.257526695728302,-0.17954249680042267],[-0.2994098365306854,0.05713317170739174,0.21572192013263702,-0.19531074166297913,0.016711881384253502,-0.0731944665312767,0.30635255575180054,-0.26906120777130127,0.20353169739246368,-0.19625042378902435],[-0.1495000571012497,0.12286892533302307,-0.010527404025197029,-0.1043354943394661,0.10863488167524338,0.12706086039543152,-0.1551501601934433,0.2993621230125427,-0.1950783133506775,0.2992638647556305],[-0.027430640533566475,0.1765514463186264,-0.0024693862069398165,0.047453634440898895,0.04849269986152649,-0.023338058963418007,-0.25410377979278564,0.20120646059513092,0.1758829653263092,-0.18123766779899597],[-0.2267003208398819,0.2907222807407379,-0.2584858536720276,0.1402224600315094,-0.15810149908065796,0.11307273060083389,-0.020672723650932312,0.17595480382442474,0.09493308514356613,0.07702759653329849],[0.2970362901687622,-0.044568758457899094,0.14862635731697083,-0.2600911855697632,0.16767562925815582,-0.18827056884765625,-0.16839805245399475,0.01850780099630356,-0.014954899437725544,-0.16050098836421967],[0.2091464400291443,0.11843731999397278,-0.25774598121643066,-0.08466590940952301,-0.2387632131576538,0.1420697122812271,0.12642905116081238,0.042419493198394775,0.26814550161361694,-0.009889863431453705],[-0.18486405909061432,0.2895931005477905,0.12238477170467377,0.13301244378089905,-0.08813434839248657,0.06169683486223221,0.25451362133026123,-0.07514645159244537,-0.20266343653202057,-0.29043692350387573],[0.016636569052934647,-0.0800062045454979,-0.16918127238750458,-0.22188472747802734,0.16663286089897156,-0.2695763409137726,-0.029382949694991112,-0.144546240568161,0.19967326521873474,0.08054687827825546],[-0.2631238102912903,0.07963487505912781,-0.24415773153305054,-0.3025681972503662,0.19052694737911224,0.046059299260377884,-0.021543463692069054,-0.19415156543254852,-0.16055922210216522,0.23634536564350128],[0.022670885547995567,0.2625734508037567,-0.2646839916706085,0.2440752387046814,0.16388514637947083,-0.24808689951896667,0.02902979403734207,-0.0603453554213047,0.18703342974185944,0.12813542783260345],[-0.05436835438013077,-0.048188116401433945,0.25885024666786194,0.2949841320514679,0.2035122513771057,0.12518946826457977,0.08881641924381256,-0.18317554891109467,0.10411681234836578,0.024041028693318367],[-0.11941258609294891,0.24931050837039948,0.28152209520339966,-0.20414425432682037,0.058162711560726166,-0.2496325522661209,0.07180675119161606,0.1438603550195694,-0.0816628709435463,-0.11296901851892471],[0.027164140716195107,-0.008868666365742683,-0.1154605895280838,0.09107857197523117,-0.20240752398967743,0.28166577219963074,-0.14605356752872467,0.10826273262500763,-0.24665284156799316,-0.07326303422451019],[-0.21991389989852905,0.2657740116119385,-0.08079800009727478,-0.16196157038211823,0.061442531645298004,0.2530848979949951,-0.033923398703336716,0.1067657321691513,0.3210143744945526,-0.1618487387895584],[-0.016373349353671074,-0.2251381278038025,0.0243170578032732,-0.11167935281991959,0.12957055866718292,-0.23381385207176208,-0.3034956157207489,-0.16745644807815552,0.1482163369655609,-0.1144331768155098],[-0.12901555001735687,0.30526360869407654,-0.015468195080757141,-0.210872083902359,-0.24006964266300201,-0.18879418075084686,0.15354090929031372,-0.24860981106758118,0.015260954387485981,-0.17729735374450684],[0.20715515315532684,-0.0700385645031929,-0.02029215358197689,0.2807469367980957,0.12663774192333221,-0.2578276991844177,0.15557438135147095,-0.020072555169463158,0.2747412919998169,0.018897132948040962],[0.029852842912077904,0.3129272162914276,-0.19862046837806702,0.19652700424194336,0.06747651845216751,0.22599093616008759,-0.30907773971557617,0.21843808889389038,-0.04450511559844017,0.1342366486787796],[-0.09780240058898926,-0.12003231793642044,0.1811354011297226,-0.06495308876037598,0.06105674430727959,0.2506882846355438,-0.10333675891160965,0.11160320043563843,0.2886003255844116,0.01568419113755226],[-0.09557506442070007,0.030752651393413544,0.012901224195957184,-0.29806631803512573,-0.029059840366244316,-0.03496765345335007,0.01529069896787405,0.2811506688594818,0.2893308997154236,-0.14645244181156158],[-0.16478858888149261,-0.17524410784244537,-0.14802266657352448,0.20964837074279785,-0.1338045597076416,0.21550048887729645,-0.06067606061697006,-0.17003066837787628,0.1507776975631714,-0.10528004169464111],[0.11736679077148438,-0.2810046672821045,0.22711946070194244,-0.07855945825576782,0.2280726134777069,0.10596606135368347,-0.1156601831316948,0.10282211750745773,0.13103319704532623,0.19095651805400848],[-0.08388512581586838,-0.003548090113326907,-0.07876242697238922,-0.26667362451553345,0.16239698231220245,-0.11286044865846634,-0.16131210327148438,-0.03960709273815155,-0.15785275399684906,0.14770197868347168],[0.161818727850914,0.2706277072429657,0.17136184871196747,-0.155709907412529,-0.21535123884677887,0.013704652898013592,-0.08398164808750153,0.18328651785850525,-0.29193544387817383,-0.2755746841430664],[-0.01685814931988716,0.27635425329208374,0.05510900914669037,-0.2425747662782669,-0.09858739376068115,0.19066430628299713,-0.09167507290840149,0.27453818917274475,-0.24556796252727509,0.10292495042085648],[-0.0012222463265061378,0.2746759057044983,0.12230557948350906,-0.2914070188999176,-0.06359021365642548,-0.16132737696170807,-0.036286599934101105,-0.22515714168548584,-0.1499670445919037,0.10440023988485336],[-0.2652147114276886,0.2833671569824219,0.09439577907323837,-0.20459584891796112,0.11283840239048004,-0.21764716506004333,-0.28736621141433716,0.060208819806575775,0.2789393961429596,0.12646375596523285],[0.14693492650985718,0.1889529675245285,0.24775761365890503,-0.22184236347675323,-0.2102680206298828,0.012627363204956055,-0.16629768908023834,-0.09786830097436905,0.18298238515853882,0.027260567992925644],[-0.11652690917253494,0.2535332441329956,0.2565722167491913,0.24602697789669037,-0.11252237856388092,-0.24078145623207092,-0.021755581721663475,-0.16457976400852203,0.003433032426983118,0.20315498113632202],[-0.2560630738735199,-0.2920926511287689,0.07720521837472916,0.022752853110432625,-0.1490454226732254,0.29688456654548645,0.004361698869615793,-0.1156959980726242,0.005190718919038773,0.264238566160202],[0.028229499235749245,-0.05883953347802162,-0.13543854653835297,0.21880702674388885,-0.12056592851877213,0.06281422078609467,-0.06512634456157684,0.009720069356262684,0.13508599996566772,0.26853591203689575]],[[-0.02268931269645691,0.24487575888633728,-0.1981704831123352,-0.027736127376556396,0.005475223064422607,0.15674158930778503,-0.14598368108272552,-0.11170320212841034,0.012709587812423706,0.2982465922832489],[0.12359580397605896,-0.31475958228111267,-0.1867380291223526,0.08292070031166077,0.17803573608398438,0.07595667243003845,-0.2609136998653412,-0.06156659126281738,0.14642277359962463,-0.28561365604400635],[-0.14605437219142914,-0.10398800671100616,0.13005101680755615,0.10472434759140015,-0.2919580638408661,-0.04777932167053223,-0.07527416944503784,0.05376631021499634,0.056669533252716064,0.2685835063457489],[0.03529176115989685,-0.05267149209976196,-0.22376415133476257,-0.20774130523204803,-0.28536492586135864,-0.11756810545921326,-0.2372112274169922,-0.07466335594654083,0.1833460032939911,0.13089579343795776],[0.07336276769638062,0.19033029675483704,-0.0988532155752182,0.18747714161872864,-0.19261862337589264,-0.028051823377609253,-0.08201885223388672,0.09430640935897827,0.2333870232105255,0.01555711030960083],[-0.014809221029281616,-0.024777889251708984,0.10356312990188599,-0.21707402169704437,0.08162695169448853,0.12839704751968384,-0.19789940118789673,-0.31160426139831543,-0.23384565114974976,-0.1044948399066925],[0.1501709520816803,0.062052249908447266,0.06385219097137451,0.1528570055961609,-0.1587822586297989,-0.0451110303401947,-0.25649964809417725,0.2676064670085907,0.13373130559921265,-0.0745159238576889],[0.19609859585762024,-0.17969045042991638,0.19685491919517517,-0.25408998131752014,-0.010066241025924683,-0.2700897455215454,0.09299632906913757,-0.026354819536209106,0.2715858519077301,-0.005383133888244629],[-0.27331459522247314,0.03750801086425781,-0.0262296199798584,0.16645851731300354,0.15858182311058044,-0.11457943916320801,0.09842419624328613,0.27058646082878113,-0.16064728796482086,-0.13402406871318817],[-0.12878930568695068,0.05225756764411926,-0.20256030559539795,-0.1675928235054016,0.02705484628677368,0.15957292914390564,-0.1589328497648239,0.1538996398448944,0.01992008090019226,-0.2898424565792084],[-0.09755080938339233,-0.06104174256324768,-0.20355868339538574,0.21521732211112976,-0.017056018114089966,0.1098664402961731,-0.12872375547885895,-0.06457504630088806,-0.0795355886220932,0.29845765233039856],[-0.20495936274528503,-0.17935287952423096,0.08279997110366821,0.05326107144355774,-0.15053370594978333,-0.23678916692733765,-0.22410112619400024,-0.04016712307929993,-0.27116554975509644,-0.2070813775062561],[0.29603275656700134,0.0754653811454773,0.24897298216819763,-0.15940791368484497,0.037850797176361084,0.005098998546600342,-0.1222931295633316,-0.3128376603126526,0.21162447333335876,0.2539609968662262],[-0.1783948689699173,0.24607393145561218,-0.20317432284355164,0.19152209162712097,0.04047894477844238,0.07112720608711243,-0.15863795578479767,-0.07046064734458923,-0.2623588442802429,0.08805498480796814],[0.303710013628006,0.1397542953491211,-0.30262327194213867,-0.01831662654876709,0.19558432698249817,0.1655990481376648,0.040135741233825684,-0.08084729313850403,-0.0854208767414093,0.017073869705200195],[-0.037681758403778076,0.041704654693603516,-0.0813039243221283,0.26526007056236267,-0.02235141396522522,0.14339479804039001,-0.21103709936141968,-0.18544889986515045,0.16710242629051208,-0.011530429124832153],[0.28490766882896423,-0.10077954828739166,0.2549764811992645,-0.1837998330593109,0.11535871028900146,0.287146657705307,0.17507818341255188,-0.24411368370056152,0.22945567965507507,0.3046870529651642],[-0.19177642464637756,-0.1095767468214035,-0.23309646546840668,-0.18698498606681824,0.23481324315071106,0.08620119094848633,-0.27091163396835327,-0.21733485162258148,-0.055113285779953,0.19706770777702332],[0.04937100410461426,-0.20274290442466736,0.037171632051467896,-0.169267937541008,0.0824141800403595,-0.01852351427078247,-0.21363003551959991,0.034746766090393066,-0.28913024067878723,-0.24973803758621216],[0.08514934778213501,-0.23079203069210052,0.010270535945892334,0.13282448053359985,-0.03167280554771423,0.14025220274925232,0.076386958360672,0.2521580159664154,-0.0036973953247070312,0.03953796625137329],[0.119130939245224,-0.06562316417694092,-0.1652422845363617,-0.16694141924381256,0.11006420850753784,-0.19047465920448303,0.277411550283432,-0.015734314918518066,-0.18000680208206177,-0.07051469385623932],[0.02187979221343994,-0.12906070053577423,0.287271112203598,-0.21542046964168549,0.13175764679908752,-0.17433853447437286,-0.30912864208221436,0.20345428586006165,0.11608654260635376,-0.27932804822921753],[0.14192447066307068,-0.030054986476898193,0.136310875415802,0.19216576218605042,-0.17732460796833038,-0.31600508093833923,-0.09666725993156433,0.24585512280464172,0.13584375381469727,0.2334170639514923],[-0.16414782404899597,0.14178061485290527,0.2845101058483124,0.1257477104663849,0.1775107979774475,-0.2221832126379013,0.09754177927970886,0.05211028456687927,0.2611546814441681,0.18084421753883362],[0.1328505575656891,0.1431320309638977,0.0200483500957489,-0.18018655478954315,0.24125048518180847,0.24614843726158142,0.17379897832870483,0.13612321019172668,-0.10180072486400604,-0.26893284916877747],[-0.29487529397010803,0.21936491131782532,0.20382842421531677,-0.1449984610080719,-0.2977905869483948,-0.14117543399333954,-0.17737354338169098,-0.11681827902793884,0.26430752873420715,0.10783174633979797],[-0.2508503496646881,0.16811490058898926,0.11777627468109131,0.19144275784492493,0.07260045409202576,-0.11417973041534424,-0.1198199987411499,-0.15547744929790497,-0.1619299054145813,0.19176504015922546],[0.1638467013835907,0.24382278323173523,-0.22281908988952637,-0.23633146286010742,0.23968955874443054,0.22853901982307434,-0.19010168313980103,0.16679424047470093,0.1723843812942505,-0.15628428757190704],[0.06275147199630737,-0.27403903007507324,-0.1417730450630188,-0.23371925950050354,0.17008048295974731,0.14172381162643433,-0.0038532018661499023,0.18557479977607727,-0.25631245970726013,0.09313130378723145],[-0.12581749260425568,-0.014430820941925049,0.09566843509674072,0.1420457661151886,-0.1334986835718155,0.26639923453330994,-0.18299823999404907,-0.20549854636192322,0.027513772249221802,0.17393344640731812],[0.23094812035560608,-0.08587747812271118,0.2489299476146698,-0.25641000270843506,-0.2581298053264618,0.2117827832698822,-0.050506591796875,-0.2891019582748413,0.10084989666938782,-0.06780014932155609],[0.16180729866027832,-0.0031246840953826904,0.17388030886650085,0.30511751770973206,-0.2951405346393585,-0.20525804162025452,-0.16747848689556122,0.02546200156211853,-0.023872673511505127,-0.07960547506809235],[-0.20378746092319489,0.22806331515312195,-0.11356213688850403,-0.14837746322155,0.14972543716430664,-0.22766557335853577,0.16661164164543152,-0.19613337516784668,-0.13935579359531403,-0.0034566521644592285],[-0.10077883303165436,-0.02119767665863037,-0.17539982497692108,-0.024516135454177856,0.115960031747818,-0.00435224175453186,-0.08394220471382141,-0.22922569513320923,0.06884673237800598,-0.004821598529815674],[-0.14951016008853912,0.2687976658344269,-0.2710169851779938,-0.30287912487983704,-0.2943726181983948,-0.13758409023284912,0.2732049524784088,-0.23361416161060333,0.09352999925613403,-0.03493189811706543],[-0.0005849599838256836,0.29995235800743103,0.30150315165519714,-0.09631754457950592,-0.11013002693653107,-0.22568710148334503,-0.035652726888656616,0.04721185564994812,0.1393033266067505,-0.09544281661510468],[0.06093290448188782,-0.10486291348934174,0.21701154112815857,-0.3059723377227783,-0.25231805443763733,0.09580612182617188,-0.060711681842803955,-0.07159872353076935,0.027839750051498413,0.047476381063461304],[-0.3121337592601776,-0.014168858528137207,0.2786881625652313,0.13541772961616516,0.07236576080322266,-0.26822328567504883,0.18912038207054138,-0.27177098393440247,-0.22846120595932007,-0.25494658946990967],[-0.3093774616718292,0.10031476616859436,0.15170738101005554,0.19852176308631897,0.245224267244339,-0.0808737576007843,-0.06022524833679199,0.015960276126861572,0.25913187861442566,-0.13912270963191986],[0.0897822380065918,-0.22176899015903473,0.0169680118560791,0.19859710335731506,-0.2054746150970459,0.07163888216018677,-0.17380699515342712,0.27651384472846985,-0.17185145616531372,0.15228888392448425]]],"hidden_biases":[[0.21642887592315674,0.1575656533241272,-0.1728651225566864,-0.10393228381872177,0.3046364486217499,0.15264256298542023,0.2764558792114258,0.08546407520771027,-0.13493575155735016,0.28182700276374817,-0.2230653613805771,0.29677027463912964,-0.17576897144317627,-0.24976611137390137,-0.06390809267759323,-0.06030656769871712,0.2629452347755432,-0.16072644293308258,0.16506725549697876,-0.20266853272914886,0.19946688413619995,-0.21046091616153717,-0.1490219086408615,-0.09123159199953079,0.20831145346164703,-0.31082063913345337,-0.08352776616811752,-0.26402828097343445,0.12225966900587082,-0.15991932153701782,0.24983781576156616,-0.12648208439350128,-0.25347670912742615,0.26115208864212036,0.17604388296604156,0.060266803950071335,0.30828917026519775,-0.06152765825390816,0.1888062208890915,-0.23112499713897705],[0.21882060170173645,0.2490057647228241,-0.2605768144130707,-0.016009092330932617,0.04576224088668823,0.11844265460968018,-0.0812273621559143,-0.07366497814655304,0.030664265155792236,-0.2613011598587036,0.29727765917778015,0.29866477847099304,0.0534949004650116,-0.19390001893043518,-0.1686558574438095,0.05764895677566528,-0.05838465690612793,0.1290677785873413,0.2842859923839569,0.21911409497261047,-0.22557035088539124,-0.09987320005893707,-0.12435942888259888,-0.28235501050949097,-0.2475745975971222,-0.14555665850639343,-0.24033328890800476,0.10131910443305969,0.30958881974220276,-0.2683263123035431,-0.3064272105693817,-0.017215043306350708,-0.09690219163894653,0.2766849100589752,-0.0501018762588501,0.19275346398353577,0.15105369687080383,0.20724162459373474,-0.05169278383255005,-0.27962249517440796]],"train_loss":0.44785015929545113,"val_loss":1.0161962178018358,"epochs":9},{"fliename":"D:\\Instincts\\AI-ML\\Neural_Server\\Datasets\\MTS_Search\\Dataset\\Flight001.xlsx","layers":"1","neurons":[10,1,1,10,1,1],"ptype":"Time Series","test_split":0.1,"validation_split":0.1,"learning_rate":0.0003,"Batch_size":45,"Optimizer":"Adam","dropouts":[0.1,0.1,0.1,0.1],"framework":"PyTorch","date":1613585003403,"layers_name":["LSTM(14, 10, dropout=0.1)","Linear(in_features=10, out_features=1, bias=True)"],"weights":[[[0.27275151014328003,0.20218512415885925,0.10833875834941864,-0.22290994226932526,0.1533692479133606,-0.016172295436263084,0.19263212382793427,-0.10954028367996216,0.30404770374298096,-0.27314043045043945,-0.010060019791126251,-0.3439719080924988,0.03919493779540062,-0.21186494827270508],[0.21248465776443481,-0.010095159523189068,0.18348336219787598,-0.12989488244056702,0.048066601157188416,-0.2874055504798889,-0.07390677183866501,-0.16823965311050415,0.2396802306175232,0.3078952133655548,0.04590027034282684,0.16746090352535248,0.028483428061008453,-0.17084382474422455],[-0.17770852148532867,-0.2739485204219818,0.21272456645965576,-0.2116716355085373,0.27991947531700134,-0.03725188970565796,0.046944089233875275,0.22338774800300598,0.1618514508008957,0.03099518083035946,0.33652451634407043,0.31987473368644714,0.26545578241348267,0.07999341189861298],[0.1773429661989212,-0.18430446088314056,0.030908089131116867,0.11131978034973145,0.07702923566102982,-0.08161090314388275,0.06412901729345322,0.004339700564742088,-0.28056320548057556,-0.019358476623892784,-0.012540966272354126,0.34600162506103516,-0.07348135858774185,0.2881973683834076],[0.29450133442878723,0.1582394540309906,0.190450057387352,-0.231973797082901,0.28856536746025085,0.18870007991790771,-0.17688608169555664,0.04860510677099228,-0.02900768257677555,0.05110660940408707,0.08703241497278214,-0.3051007091999054,0.12684839963912964,0.3087589740753174],[-0.11289863288402557,0.1515870839357376,0.09307266771793365,-0.02766471542418003,0.3165990710258484,0.21574406325817108,0.319970965385437,-0.2610102593898773,-0.02352391555905342,0.17330965399742126,0.14739538729190826,-0.21581460535526276,-0.18028223514556885,0.12854668498039246],[0.09024239331483841,0.3304259777069092,-0.2671343684196472,0.18246804177761078,-0.17569218575954437,0.04324745014309883,-0.09763047844171524,0.35835689306259155,0.14233028888702393,0.18498454988002777,-0.02545827068388462,0.03610555827617645,-0.04535386338829994,0.14563484489917755],[-0.24482519924640656,-0.062300875782966614,-0.15904031693935394,0.2248285710811615,0.23128090798854828,-0.1010160893201828,-0.1937529742717743,0.17393073439598083,0.311825156211853,0.08619552850723267,-0.29665401577949524,-0.1558326929807663,0.27887657284736633,0.1074085682630539],[-0.06964235752820969,0.1777840256690979,-0.0800660252571106,0.07342010736465454,0.19050972163677216,0.11574466526508331,0.20249387621879578,0.3496633470058441,0.10242124646902084,0.08667895942926407,0.25985273718833923,-0.21528062224388123,0.22317761182785034,-0.09221171587705612],[0.013612786307930946,0.07975424826145172,-0.2922284007072449,0.17899157106876373,0.18799598515033722,-0.08118759840726852,0.02157234027981758,0.25680530071258545,-0.18611513078212738,0.2915937304496765,0.1318875402212143,0.04291953146457672,-0.1653507649898529,-0.022683821618556976],[-0.003252661321312189,-0.2828352153301239,0.11934727430343628,0.23521319031715393,-0.020178791135549545,0.1019255742430687,-0.3116929829120636,0.05403076857328415,-0.1514989584684372,-0.16283439099788666,0.17744673788547516,0.06471281498670578,0.1548568159341812,0.026309650391340256],[0.29786795377731323,0.00482103880494833,0.15775133669376373,0.33340516686439514,0.052116382867097855,0.27033454179763794,0.21597518026828766,-0.32910946011543274,-0.15335014462471008,-0.012385712005198002,0.055473778396844864,0.22523266077041626,0.1007208377122879,-0.12672656774520874],[0.22032904624938965,0.19304141402244568,0.208165243268013,-0.20288754999637604,0.04748311638832092,0.13107876479625702,0.07113831490278244,0.03489185869693756,-0.21924316883087158,0.3285202085971832,-0.2620173990726471,-0.04739976301789284,-0.023994578048586845,0.23082880675792694],[-0.20878535509109497,0.13008391857147217,0.10974373668432236,-0.06251677870750427,0.2062450796365738,0.27767476439476013,-0.13829724490642548,-0.10388825088739395,-0.26616111397743225,0.2354113608598709,-0.068703792989254,0.20899663865566254,0.03783279284834862,0.1913137286901474],[-0.2696755528450012,-0.006770392879843712,0.31095120310783386,0.2511746287345886,-0.1269921511411667,0.2687227129936218,0.12403670698404312,0.15501360595226288,0.33378949761390686,-0.18086104094982147,-0.27387765049934387,0.06286003440618515,0.3169955313205719,0.010010291822254658],[-0.1628185510635376,0.002263951813802123,-0.016227707266807556,-0.11730494350194931,0.1008438915014267,-0.0008676284924149513,-0.09436265379190445,0.3129541277885437,0.19295138120651245,-0.12523137032985687,0.15106679499149323,0.12370988726615906,0.069660983979702,0.0026893778704106808],[0.03820387274026871,-0.06167806684970856,0.024741273373365402,0.05554286390542984,0.046902745962142944,-0.13924284279346466,-0.27701884508132935,0.27557435631752014,-0.33368101716041565,-0.17781151831150055,-0.03647824376821518,-0.2582643926143646,-0.27211764454841614,0.04943127557635307],[-0.08480988442897797,0.1360434740781784,0.11932644248008728,-0.2541220188140869,0.210343599319458,0.1633068472146988,0.07168392091989517,-0.1816142350435257,-0.12260321527719498,-0.1836097687482834,0.052038777619600296,-0.18525658547878265,-0.1958816796541214,-0.2504904568195343],[-0.20935730636119843,-0.11784034967422485,0.22982951998710632,0.2892094552516937,0.10935136675834656,-0.10412655025720596,-0.27294865250587463,0.31961122155189514,0.2205699384212494,0.14160655438899994,0.2212194949388504,0.08392701297998428,-0.15492141246795654,-0.21581178903579712],[0.08563476800918579,-0.021981455385684967,0.027797900140285492,-0.24333100020885468,-0.14183162152767181,0.15587382018566132,-0.12692922353744507,0.1280146688222885,0.08819698542356491,0.0019256543600931764,-0.28642207384109497,0.21221503615379333,0.11127293109893799,0.26951056718826294],[-0.16251370310783386,-0.04971051588654518,0.21555933356285095,0.23594450950622559,-0.07017435133457184,-0.07107039541006088,-0.11513932794332504,0.046723008155822754,0.12457713484764099,0.10729151219129562,0.07898084074258804,-0.21814920008182526,0.10979901254177094,0.15282247960567474],[-0.21140851080417633,-0.0771750882267952,-0.36689913272857666,-0.22612379491329193,-0.21558469533920288,0.15290692448616028,0.3633887469768524,-0.11540952324867249,0.10361930727958679,0.0602482333779335,-0.07500504702329636,0.34532177448272705,-0.25935661792755127,-0.39672908186912537],[-0.21895790100097656,-0.38656604290008545,-0.021976619958877563,-0.2792654037475586,-0.3596564531326294,0.23408855497837067,0.23066943883895874,-0.10372787714004517,0.194210484623909,-0.09025929123163223,-0.3102691173553467,-0.2539049983024597,0.013952161185443401,-0.3700600266456604],[-0.2727871537208557,0.16295987367630005,0.22833393514156342,-0.2524869740009308,0.13215401768684387,0.014851672574877739,-0.16631962358951569,-0.230386421084404,0.11706093698740005,-0.28283482789993286,0.037799570709466934,0.0014153036754578352,-0.0664999932050705,-0.19184482097625732],[-0.25207599997520447,0.3269217312335968,0.1039956733584404,0.24183619022369385,0.22860828042030334,-0.0826236680150032,-0.1183662936091423,-0.009954671375453472,0.3180984854698181,0.2578384280204773,0.2840241491794586,-0.14096923172473907,-0.08542291820049286,0.25518178939819336],[-0.017497306689620018,-0.17252416908740997,-0.06587304919958115,0.06110329180955887,0.16553843021392822,0.15925101935863495,0.30925944447517395,-0.24350185692310333,0.21343033015727997,-0.308584064245224,-0.1245383694767952,-0.02092914842069149,-0.20714989304542542,0.1409406065940857],[-0.25778788328170776,-0.16367170214653015,-0.31416231393814087,-0.10573296993970871,-0.0487976148724556,-0.1193728893995285,-0.17648008465766907,0.0049834405072033405,-0.006880688481032848,-0.11101143807172775,-0.1801563799381256,-0.23257564008235931,0.1990392804145813,0.18473096191883087],[0.13519300520420074,-0.029788991436362267,0.10670267790555954,-0.2856942117214203,-0.30019453167915344,0.2497769445180893,0.08356231451034546,-0.29465946555137634,-0.004571046680212021,-0.19491779804229736,-0.17722956836223602,0.24322135746479034,-0.11099313199520111,-0.1878245770931244],[0.34160953760147095,0.16443295776844025,0.34536850452423096,0.011128649115562439,-0.11235218495130539,-0.07766055315732956,0.03076060675084591,0.18428157269954681,-0.25680315494537354,0.30033382773399353,0.22189614176750183,0.15761291980743408,0.047636669129133224,0.07719814777374268],[-0.16492842137813568,-0.16058412194252014,0.08651124686002731,-0.1860031634569168,-0.2738044857978821,0.2590038776397705,-0.059759192168712616,0.23231326043605804,-0.3067905306816101,-0.09352011233568192,0.05822240933775902,0.07099150866270065,0.24735237658023834,0.2800203263759613],[-0.2170003354549408,-0.09191819280385971,0.2077154815196991,0.35919734835624695,0.27001893520355225,-0.2266402542591095,0.10646235942840576,-0.2274397909641266,0.16982434689998627,0.2142731100320816,-0.09650097787380219,-0.1081438884139061,0.00518869049847126,0.11234065145254135],[0.2039777785539627,0.24585603177547455,0.06232677400112152,0.04050648584961891,0.08810567855834961,0.17040033638477325,0.06269150972366333,-0.33361417055130005,-0.006157851777970791,0.16045743227005005,0.21330022811889648,-0.10329195857048035,0.26092812418937683,-0.05743918567895889],[0.31182026863098145,-0.1854611486196518,-0.13497374951839447,0.09621299803256989,0.18518668413162231,-0.10953061282634735,-0.2656167149543762,0.19986942410469055,-0.17088961601257324,0.10659528523683548,0.32929524779319763,0.21620114147663116,0.051872704178094864,0.1380905956029892],[0.26195481419563293,0.2963745594024658,-0.15609747171401978,0.19670316576957703,-0.11280246824026108,0.25106537342071533,-0.05760329216718674,-0.24593889713287354,0.11906539648771286,0.2683366537094116,-0.2472497522830963,0.017944330349564552,0.2523072063922882,-0.19960996508598328],[-0.11083203554153442,0.07448149472475052,0.03120531514286995,0.23805451393127441,0.3205263912677765,-0.03107152320444584,-0.34056419134140015,-0.20299214124679565,-0.11467217653989792,0.22087596356868744,0.043919358402490616,0.11186369508504868,-0.036429256200790405,0.11288341134786606],[-0.09941072016954422,0.023054875433444977,0.016168156638741493,0.19539520144462585,-0.05111626163125038,0.03341887518763542,-0.1898462027311325,0.0013109956635162234,-0.08791249245405197,-0.22812815010547638,0.19106212258338928,0.24934636056423187,0.29124000668525696,0.23186582326889038],[-0.24736922979354858,0.2922831177711487,-0.16839030385017395,-0.07753884047269821,0.12859223783016205,0.2393026053905487,-0.0520290732383728,-0.07502458989620209,-0.23804150521755219,0.18224765360355377,0.03829656541347504,-0.2248818278312683,-0.033764030784368515,0.0006180732161737978],[-0.04175107553601265,0.2509525418281555,0.22522658109664917,0.1876036822795868,0.23501132428646088,-0.055569980293512344,-0.033025745302438736,-0.10078244656324387,-0.16429908573627472,-0.18082676827907562,-0.17098228633403778,-0.21682894229888916,0.1700606346130371,0.06410304456949234],[-0.07764865458011627,0.24472932517528534,0.019515404477715492,0.2939630448818207,0.12456919997930527,0.0013477880274876952,0.1688663363456726,-0.10920245945453644,0.23858892917633057,-0.0005846191197633743,0.1924053579568863,0.21241864562034607,-0.027005046606063843,0.22658857703208923],[-0.13980452716350555,0.05135771632194519,-0.02777024544775486,-0.015489787794649601,-0.3024475574493408,-0.03091864287853241,-0.27149254083633423,0.3333830237388611,-0.2064763307571411,0.23718328773975372,0.23157793283462524,0.12769177556037903,-0.27171069383621216,0.23122753202915192]],[[0.08391784876585007,-0.2106177657842636,-0.09019596129655838,-0.1372338980436325,0.1400173008441925,-0.3206394612789154,-0.21568050980567932,0.0183082427829504,0.06523002684116364,0.14024914801120758]]],"biases":[[0.15574543178081512,0.2448630928993225,0.3459968566894531,0.053482022136449814,0.10800362378358841,-0.21164214611053467,0.19147677719593048,-0.0243866927921772,0.14187052845954895,0.052011460065841675,0.4077970087528229,0.35886913537979126,0.06004383787512779,-0.2836315333843231,0.18132273852825165,0.287634015083313,0.2706689238548279,-0.01069195568561554,0.07247264683246613,-0.1739155352115631,-0.17146651446819305,-0.06674746423959732,0.06290260702371597,0.24638256430625916,-0.14839424192905426,-0.10310313105583191,-0.027401141822338104,0.19984066486358643,-0.13675826787948608,0.21449384093284607,0.06619307398796082,0.0032731727696955204,0.16628414392471313,-0.14119407534599304,0.319840669631958,-0.252311110496521,-0.10022131353616714,0.23701658844947815,-0.04652553051710129,-0.07208113372325897],[-0.27719923853874207]],"hidden_weights":[[[0.23819005489349365,0.17888294160366058,-0.1262884885072708,0.06793659180402756,0.3088705837726593,0.2387871891260147,0.060604650527238846,-0.05327192693948746,-0.0022462354972958565,0.04768181964755058],[-0.2315637618303299,-0.22528457641601562,0.14204974472522736,-0.2610134482383728,-0.07644961774349213,-0.10831446945667267,0.28119799494743347,-0.07137887924909592,0.24804462492465973,-0.04835328832268715],[0.3179366886615753,0.1995745450258255,0.17245687544345856,0.018048185855150223,-0.1577916145324707,-0.2960617244243622,-0.07034812867641449,0.10607873648405075,-0.028956642374396324,-0.32051998376846313],[-0.11079200357198715,0.25497013330459595,-0.14400041103363037,0.07485488802194595,0.15387046337127686,-0.19527094066143036,-0.11012964695692062,-0.06585660576820374,-0.1208808496594429,0.15562942624092102],[0.2360604852437973,0.07513292133808136,0.3328322470188141,-0.26102355122566223,0.07226935774087906,-0.030100947245955467,0.35239553451538086,-0.18771561980247498,-0.13034991919994354,-0.15143992006778717],[0.08742084354162216,-0.3066587746143341,0.14465661346912384,0.20700272917747498,-0.11785437166690826,-0.22473406791687012,-0.3177080452442169,0.21499919891357422,-0.19832134246826172,0.04212315008044243],[-0.06762386858463287,0.07847729325294495,-0.3167511224746704,-0.08168349415063858,-0.2512245774269104,0.2364872694015503,0.11557357758283615,0.027345720678567886,0.31048187613487244,-0.16358855366706848],[0.05413747951388359,0.18227675557136536,0.18307757377624512,-0.26802125573158264,-0.2689817547798157,0.19071249663829803,0.16938088834285736,0.08264263719320297,-0.016038864850997925,0.1375294029712677],[0.13334956765174866,-0.021821701899170876,0.13430605828762054,0.01655549742281437,-0.006641550920903683,-0.0016403108602389693,0.049418408423662186,0.06076459214091301,0.31042343378067017,-0.07605641335248947],[-0.037735335528850555,0.03230283036828041,-0.17521639168262482,-0.14881083369255066,-0.301116019487381,0.14731301367282867,0.0765116885304451,-0.291179358959198,0.2648298144340515,-0.16314946115016937],[0.3456586003303528,0.09536959230899811,-0.018835073336958885,0.13858041167259216,0.0732288509607315,0.01936989463865757,0.2537177801132202,-0.024251550436019897,-0.03228741139173508,-0.2636624872684479],[0.07423610240221024,-0.14912064373493195,-0.16402661800384521,-0.13587361574172974,-0.24529008567333221,0.24668242037296295,-0.1297704428434372,0.11859210580587387,-0.13722795248031616,-0.14189554750919342],[-0.06572465598583221,0.004559275694191456,-0.002419527852907777,-0.09898030012845993,-0.013077165931463242,-0.33430346846580505,-0.11135613918304443,-0.20415443181991577,-0.21575823426246643,-0.12686890363693237],[-0.2790856659412384,0.1777142882347107,0.09822723269462585,-0.07487394660711288,-0.09769406914710999,0.2949063181877136,-0.3350428640842438,0.16526220738887787,0.30975469946861267,-0.030517248436808586],[0.28995537757873535,0.15363571047782898,-0.09897404909133911,0.24690937995910645,0.07300405204296112,-0.08398056030273438,0.08157440274953842,-0.27596351504325867,0.15933698415756226,0.1743072271347046],[-0.1457088589668274,0.10484259575605392,-0.23735591769218445,0.2532563805580139,0.12397598475217819,-0.3096219003200531,0.0444667786359787,-0.0354551263153553,0.16252021491527557,-0.056288424879312515],[0.2552477717399597,0.2215576022863388,-0.25658777356147766,0.1965063363313675,0.025502517819404602,-0.21966060996055603,0.06535214930772781,0.2504611909389496,-0.012964663095772266,-0.2045617401599884],[-0.2535626292228699,0.04733511433005333,-0.09711908549070358,0.2868673801422119,0.10620345920324326,0.3230787217617035,0.26463600993156433,-0.23602281510829926,-0.22715060412883759,-0.23743857443332672],[0.006761724129319191,-0.18522858619689941,-0.24797166883945465,0.016266044229269028,-0.04558003321290016,-0.3131847083568573,-0.3166258633136749,0.14790871739387512,-0.09056016057729721,-0.14375852048397064],[0.052574273198843,-0.2988872826099396,-0.26847177743911743,-0.22938019037246704,0.1462215781211853,-0.0015471328515559435,0.2330963909626007,-0.043858010321855545,-0.1568116694688797,-0.028207210823893547],[-0.10203824192285538,0.0010873068822547793,-0.21434178948402405,-0.19990350306034088,0.3622726798057556,-0.26364871859550476,-0.03740552067756653,0.10942545533180237,0.331948846578598,-0.25332966446876526],[-0.3685890734195709,-0.07113710790872574,0.23210275173187256,0.10324449837207794,0.17746832966804504,0.12543073296546936,0.06354758888483047,0.20002788305282593,-0.09602700173854828,-0.3393087685108185],[-0.3084959089756012,-0.19481024146080017,0.04520709812641144,0.12742812931537628,-0.11499203741550446,0.05968211218714714,0.22019244730472565,-0.19556479156017303,0.023132577538490295,0.32828274369239807],[-0.07313384860754013,0.02005361020565033,-0.006822581868618727,0.2779636085033417,0.02098112553358078,0.32323262095451355,0.21115678548812866,-0.03449394553899765,-0.196182981133461,-0.08108386397361755],[0.2430281937122345,0.21002888679504395,0.0022098326589912176,-0.26736754179000854,-0.1418900191783905,-0.24523699283599854,0.10214878618717194,-0.035921599715948105,-0.2507922947406769,0.013822659850120544],[-0.06564487516880035,-0.24478361010551453,0.2455965280532837,-0.10125978291034698,-0.3814951777458191,0.2521841824054718,0.24729181826114655,0.35555997490882874,-0.06731089949607849,0.10377945005893707],[-0.2745586633682251,-0.16381734609603882,0.2186407446861267,-0.03115766867995262,-0.3274177014827728,0.24191008508205414,-0.044376783072948456,0.08252966403961182,0.07639198005199432,-0.06147624924778938],[0.05300673842430115,0.22624154388904572,0.032658062875270844,-0.038169026374816895,0.22876279056072235,-0.08430400490760803,-0.29875195026397705,0.2312309443950653,0.17236575484275818,0.16443920135498047],[-0.14345937967300415,0.10942402482032776,-0.18498525023460388,0.08856993913650513,0.16843697428703308,0.07925115525722504,0.1947287768125534,0.006087354384362698,0.29401248693466187,-0.16039115190505981],[0.34756359457969666,0.11083121597766876,0.04881514608860016,0.09632748365402222,-0.18363335728645325,0.21322302520275116,0.03723552078008652,-0.3460875153541565,0.25615474581718445,0.019041910767555237],[0.22395268082618713,-0.25485551357269287,-0.053913723677396774,-0.27027055621147156,-0.07454195618629456,0.22172506153583527,-0.22037273645401,0.023341327905654907,0.2519559860229492,0.2478741556406021],[0.24838894605636597,-0.014610893093049526,-0.27381253242492676,-0.18300658464431763,0.2489413619041443,-0.2117837816476822,-0.23095272481441498,0.04378219693899155,0.2231391966342926,-0.13030798733234406],[0.05235247313976288,-0.17498837411403656,0.193818598985672,-0.3242577016353607,-0.20782802999019623,-0.004159887321293354,-0.11934585124254227,0.07364165037870407,0.28836119174957275,0.055799923837184906],[-0.048851098865270615,-0.10857365280389786,-0.2479059249162674,0.09388125687837601,0.31775394082069397,-0.13838604092597961,0.16639696061611176,0.00957002118229866,0.3287920355796814,-0.23027871549129486],[0.15353529155254364,-0.29439106583595276,0.1756259649991989,0.2286892831325531,-0.025713877752423286,0.1617889255285263,-0.25256186723709106,-0.17331872880458832,-0.11403392255306244,0.24156059324741364],[0.10302629321813583,0.06337989866733551,-0.24289338290691376,-0.32640889286994934,-0.10677991062402725,-0.15120889246463776,0.1255820244550705,-0.28169524669647217,0.23534223437309265,0.00045770517317578197],[-0.1837039291858673,0.27601927518844604,-0.041017815470695496,-0.3645833730697632,-0.1871585249900818,-0.2742905616760254,-0.16619423031806946,-0.31442058086395264,0.15802203118801117,0.09516338258981705],[-0.12920251488685608,-0.09577558189630508,0.10098610818386078,-0.22063575685024261,0.13793827593326569,0.30430132150650024,0.3042526841163635,-0.12564219534397125,0.1861085146665573,-0.003471709555014968],[0.0168601181358099,0.26061949133872986,-0.051854755729436874,0.21124590933322906,0.020013634115457535,-0.0943320170044899,-0.23688873648643494,-0.015008972957730293,0.3466688394546509,0.20389097929000854],[0.16486655175685883,-0.005927956197410822,0.24877957999706268,0.22990760207176208,0.08203449845314026,0.22743116319179535,-0.07222852110862732,-0.31842759251594543,0.04799116775393486,0.09252731502056122]]],"hidden_biases":[[0.3066563904285431,-0.17610503733158112,0.3735862374305725,0.21243757009506226,-0.05264030769467354,0.04863204061985016,0.08918523043394089,0.298058420419693,-0.055292148143053055,0.13155587017536163,0.35502323508262634,-0.036584820598363876,0.4079228937625885,-0.29616156220436096,0.08289147168397903,0.3516995310783386,-0.3097679316997528,-0.08942733705043793,-0.10777030140161514,0.044228557497262955,0.007452117744833231,-0.16544798016548157,0.24062344431877136,-0.2589697539806366,0.1238783672451973,-0.009513845667243004,0.05752098932862282,0.19813919067382812,0.009301579557359219,-0.2241087108850479,0.07799887657165527,0.24860256910324097,0.05821596831083298,-0.22054551541805267,0.256428599357605,-0.22163401544094086,-0.13925683498382568,0.23336239159107208,0.33201587200164795,0.20984672009944916]],"train_loss":0.04122954205650946,"val_loss":0.02077017018907807,"epochs":9},{"fliename":"D:\\Instincts\\AI-ML\\Neural_Server\\Datasets\\Churn_Modelling.xlsx","layers":"1","neurons":[3,1,5,2,1,1],"ptype":"Classification","test_split":0.1,"validation_split":0.1,"learning_rate":0.0003,"Batch_size":32,"Optimizer":"Adam","dropouts":[0.1,0.1,0.1,0.1],"framework":"Keras","date":1613757232698,"layers_name":["dense","dense_1"],"weights":[[[-0.0693090558052063,0.057758789509534836,0.006440845783799887,-0.5214003324508667,0.024879906326532364,-0.11331936717033386,0.017363611608743668,-0.018968703225255013,0.05054756626486778,-0.06029026582837105],[0.19121861457824707,0.13593602180480957,0.15453080832958221,-0.6644318103790283,-0.07835301756858826,-0.3297722041606903,0.0413568951189518,0.12053748965263367,0.3463471829891205,0.10046325623989105],[-0.019617736339569092,-0.32221266627311707,0.3169096112251282,-0.7084907293319702,0.0888357162475586,-0.07978321611881256,-0.0037530448753386736,-0.08162093907594681,0.1118200272321701,-0.1164904311299324]],[[-0.5025594234466553,-0.6783621907234192,-0.6964617967605591]]],"biases":[[0.4450452923774719,0.7128444314002991,0.6434149742126465],[-0.3200298547744751]],"train_accuracy":0.7916049361228943,"test_accuracy":0.8211110830307007,"train_loss":0.43882572650909424,"val_loss":0.3910982012748718,"epochs":15}]}